#pragma once
#include <cstdarg>
namespace Eloquent {
    namespace ML {
        namespace Port {
            class SVM {
                public:
                    /**
                    * Predict class for features vector
                    */
                    int predict(float *x) {
                        float kernels[80] = { 0 };
                        float decisions[6] = { 0 };
                        int votes[4] = { 0 };
                        kernels[0] = compute_kernel(x,   9.559999  , 7.24  , 8.08  , 7.24  , 7.24  , 8.08  , 8.86  , 7.24  , 6.26  , 8.08  , 9.559999  , 8.86  , 10.219999  , 10.86  , 12.54  , 11.44  , 9.559999  , 6.26  , 5.1  , 3.62  , 5.1  , 5.1  , 5.1  , 3.62  , 5.1  , 5.1  , 3.62  , 3.62  , 0.0  , 0.0  , 0.0  , 0.0  , 0.0  , 0.0  , 0.0  , 0.0  , 0.0  , 0.0  , 0.0  , 3.62  , 3.62  , 3.62  , 3.62  , 0.0  , 0.0  , 0.0  , 0.0  , 0.0  , 0.0  , 0.0  , 0.0  , 0.0  , 0.0  , 0.0  , 0.0  , 0.0  , 0.0  , 0.0  , 0.0  , 0.0  , 0.0  , 0.0  , 0.0  , 0.0 );
                        kernels[1] = compute_kernel(x,   28.719999  , 49.360001  , 40.779999  , 35.82  , 29.619999  , 29.619999  , 24.539999  , 22.299999  , 19.48  , 23.18  , 26.599998  , 19.139999  , 16.98  , 13.54  , 10.86  , 10.86  , 9.559999  , 10.219999  , 7.24  , 0.0  , 0.0  , 0.0  , 0.0  , 0.0  , 0.0  , 0.0  , 0.0  , 0.0  , 0.0  , 0.0  , 3.62  , 6.26  , 5.1  , 0.0  , 0.0  , 0.0  , 6.26  , 0.0  , 0.0  , 0.0  , 0.0  , 0.0  , 0.0  , 0.0  , 0.0  , 0.0  , 0.0  , 0.0  , 0.0  , 3.62  , 0.0  , 0.0  , 0.0  , 0.0  , 0.0  , 0.0  , 0.0  , 0.0  , 0.0  , 3.62  , 6.26  , 7.24  , 6.26  , 5.1 );
                        kernels[2] = compute_kernel(x,   10.86  , 11.44  , 12.0  , 12.54  , 13.04  , 13.54  , 14.02  , 14.02  , 13.54  , 13.54  , 13.04  , 12.0  , 11.44  , 10.86  , 10.219999  , 10.219999  , 10.219999  , 9.559999  , 10.219999  , 10.219999  , 10.219999  , 10.219999  , 10.219999  , 10.219999  , 10.219999  , 9.559999  , 9.559999  , 9.559999  , 8.86  , 8.86  , 8.08  , 8.08  , 8.08  , 7.24  , 7.24  , 7.24  , 7.24  , 6.26  , 6.26  , 6.26  , 6.26  , 5.1  , 5.1  , 5.1  , 3.62  , 3.62  , 3.62  , 3.62  , 3.62  , 3.62  , 0.0  , 0.0  , 0.0  , 0.0  , 0.0  , 0.0  , 0.0  , 0.0  , 0.0  , 0.0  , 0.0  , 0.0  , 0.0  , 0.0 );
                        kernels[3] = compute_kernel(x,   14.02  , 13.04  , 10.219999  , 8.86  , 8.08  , 7.24  , 6.26  , 3.62  , 3.62  , 0.0  , 0.0  , 0.0  , 0.0  , 0.0  , 0.0  , 0.0  , 0.0  , 0.0  , 3.62  , 16.98  , 21.719999  , 23.74  , 28.959999  , 30.279999  , 29.179998  , 28.039999  , 28.26  , 17.719999  , 23.74  , 20.779999  , 16.98  , 15.78  , 16.58  , 18.799999  , 22.879999  , 21.1  , 42.68  , 47.200001  , 43.879997  , 41.899998  , 41.419998  , 42.360001  , 49.360001  , 50.279999  , 49.639999  , 54.419998  , 57.459999  , 59.699997  , 57.579998  , 58.599998  , 53.82  , 43.279999  , 47.619999  , 41.259998  , 29.179998  , 28.719999  , 26.34  , 25.599998  , 25.34  , 24.0  , 23.74  , 23.18  , 21.1  , 20.459999 );
                        kernels[4] = compute_kernel(x,   10.86  , 6.26  , 0.0  , 5.1  , 7.24  , 18.1  , 27.559999  , 24.279999  , 22.6  , 20.139999  , 18.1  , 22.6  , 19.48  , 19.139999  , 14.02  , 14.48  , 17.719999  , 24.539999  , 20.459999  , 20.139999  , 21.1  , 16.98  , 17.719999  , 16.18  , 14.48  , 11.44  , 10.86  , 9.559999  , 8.08  , 6.26  , 5.1  , 5.1  , 5.1  , 5.1  , 8.86  , 13.54  , 14.48  , 19.48  , 13.54  , 12.54  , 9.559999  , 3.62  , 5.1  , 3.62  , 7.24  , 8.08  , 9.559999  , 8.86  , 8.08  , 8.08  , 9.559999  , 8.86  , 10.219999  , 8.86  , 8.08  , 3.62  , 0.0  , 6.26  , 6.26  , 6.26  , 3.62  , 12.54  , 14.48  , 3.62 );
                        kernels[5] = compute_kernel(x,   12.54  , 13.54  , 13.04  , 12.0  , 9.559999  , 7.24  , 5.1  , 3.62  , 3.62  , 0.0  , 0.0  , 0.0  , 0.0  , 0.0  , 0.0  , 0.0  , 0.0  , 0.0  , 3.62  , 3.62  , 3.62  , 3.62  , 3.62  , 3.62  , 0.0  , 0.0  , 0.0  , 0.0  , 0.0  , 0.0  , 0.0  , 0.0  , 0.0  , 0.0  , 0.0  , 0.0  , 0.0  , 0.0  , 0.0  , 0.0  , 0.0  , 0.0  , 0.0  , 0.0  , 0.0  , 0.0  , 0.0  , 0.0  , 0.0  , 0.0  , 0.0  , 3.62  , 3.62  , 0.0  , 0.0  , 0.0  , 0.0  , 0.0  , 0.0  , 0.0  , 0.0  , 0.0  , 0.0  , 0.0 );
                        kernels[6] = compute_kernel(x,   10.219999  , 9.559999  , 8.86  , 8.08  , 7.24  , 6.26  , 5.1  , 5.1  , 3.62  , 3.62  , 5.1  , 5.1  , 6.26  , 6.26  , 7.24  , 8.08  , 8.08  , 8.86  , 8.86  , 8.86  , 8.08  , 8.08  , 8.08  , 7.24  , 7.24  , 6.26  , 6.26  , 5.1  , 5.1  , 5.1  , 5.1  , 3.62  , 3.62  , 3.62  , 3.62  , 3.62  , 0.0  , 0.0  , 0.0  , 0.0  , 0.0  , 0.0  , 0.0  , 0.0  , 0.0  , 3.62  , 3.62  , 3.62  , 3.62  , 3.62  , 3.62  , 3.62  , 3.62  , 3.62  , 3.62  , 3.62  , 0.0  , 0.0  , 0.0  , 0.0  , 0.0  , 0.0  , 0.0  , 0.0 );
                        kernels[7] = compute_kernel(x,   14.48  , 18.1  , 19.82  , 19.82  , 18.799999  , 16.98  , 14.48  , 10.86  , 6.26  , 0.0  , 0.0  , 0.0  , 3.62  , 6.26  , 8.08  , 9.559999  , 10.86  , 11.44  , 12.0  , 13.04  , 13.04  , 13.54  , 13.54  , 13.54  , 13.54  , 13.54  , 13.04  , 13.04  , 13.04  , 12.54  , 12.54  , 12.0  , 12.0  , 11.44  , 11.44  , 11.44  , 10.86  , 10.86  , 10.219999  , 10.219999  , 10.219999  , 9.559999  , 9.559999  , 8.86  , 8.86  , 8.86  , 8.08  , 8.08  , 8.08  , 8.86  , 8.86  , 8.86  , 8.86  , 8.86  , 8.86  , 8.86  , 8.86  , 8.86  , 8.08  , 7.24  , 6.26  , 6.26  , 5.1  , 3.62 );
                        kernels[8] = compute_kernel(x,   10.219999  , 8.86  , 8.08  , 7.24  , 6.26  , 6.26  , 6.26  , 6.26  , 5.1  , 0.0  , 0.0  , 0.0  , 3.62  , 3.62  , 5.1  , 5.1  , 3.62  , 0.0  , 0.0  , 0.0  , 0.0  , 0.0  , 0.0  , 0.0  , 0.0  , 0.0  , 0.0  , 0.0  , 0.0  , 0.0  , 0.0  , 0.0  , 0.0  , 0.0  , 0.0  , 0.0  , 0.0  , 0.0  , 3.62  , 5.1  , 6.26  , 6.26  , 7.24  , 8.86  , 8.86  , 9.559999  , 10.219999  , 11.44  , 12.54  , 13.54  , 15.78  , 18.1  , 20.459999  , 21.1  , 21.1  , 22.02  , 22.879999  , 25.84  , 26.34  , 25.34  , 26.84  , 26.599998  , 19.82  , 12.54 );
                        kernels[9] = compute_kernel(x,   11.44  , 12.0  , 12.0  , 12.0  , 12.0  , 12.0  , 12.0  , 12.0  , 12.0  , 12.0  , 12.54  , 14.02  , 15.339999  , 17.359999  , 19.139999  , 20.139999  , 20.459999  , 19.48  , 17.719999  , 15.78  , 13.54  , 10.86  , 8.86  , 7.24  , 5.1  , 3.62  , 0.0  , 0.0  , 0.0  , 0.0  , 0.0  , 0.0  , 0.0  , 0.0  , 0.0  , 3.62  , 3.62  , 3.62  , 3.62  , 5.1  , 5.1  , 6.26  , 7.24  , 8.08  , 8.86  , 9.559999  , 10.219999  , 10.219999  , 9.559999  , 9.559999  , 9.559999  , 9.559999  , 10.219999  , 10.219999  , 10.219999  , 10.219999  , 9.559999  , 8.08  , 8.08  , 37.259998  , 52.699997  , 61.32  , 60.459999  , 62.799999 );
                        kernels[10] = compute_kernel(x,   31.76  , 25.599998  , 23.459999  , 19.82  , 17.719999  , 15.78  , 19.48  , 19.82  , 13.54  , 16.18  , 14.48  , 14.48  , 14.48  , 10.86  , 8.08  , 7.24  , 6.26  , 6.26  , 6.26  , 3.62  , 5.1  , 3.62  , 0.0  , 0.0  , 0.0  , 0.0  , 0.0  , 0.0  , 0.0  , 0.0  , 0.0  , 0.0  , 0.0  , 0.0  , 0.0  , 0.0  , 3.62  , 3.62  , 3.62  , 3.62  , 3.62  , 3.62  , 3.62  , 3.62  , 3.62  , 5.1  , 5.1  , 5.1  , 5.1  , 5.1  , 5.1  , 5.1  , 5.1  , 5.1  , 5.1  , 5.1  , 3.62  , 3.62  , 3.62  , 0.0  , 0.0  , 0.0  , 0.0  , 0.0 );
                        kernels[11] = compute_kernel(x,   10.86  , 12.54  , 11.44  , 8.86  , 8.08  , 8.08  , 8.08  , 7.24  , 6.26  , 5.1  , 3.62  , 0.0  , 0.0  , 3.62  , 3.62  , 0.0  , 0.0  , 5.1  , 8.08  , 10.219999  , 10.219999  , 13.54  , 14.02  , 12.0  , 8.86  , 13.54  , 7.24  , 7.24  , 8.08  , 8.08  , 9.559999  , 3.62  , 7.24  , 6.26  , 5.1  , 5.1  , 5.1  , 0.0  , 0.0  , 0.0  , 0.0  , 0.0  , 0.0  , 6.26  , 8.08  , 6.26  , 5.1  , 3.62  , 3.62  , 5.1  , 6.26  , 7.24  , 8.08  , 8.86  , 9.559999  , 10.219999  , 11.44  , 12.0  , 12.54  , 13.54  , 14.02  , 14.02  , 14.02  , 13.04 );
                        kernels[12] = compute_kernel(x,   12.0  , 13.04  , 12.0  , 12.0  , 10.219999  , 8.08  , 6.26  , 6.26  , 10.219999  , 14.92  , 14.48  , 13.54  , 21.719999  , 27.799999  , 14.92  , 0.0  , 7.24  , 19.139999  , 15.339999  , 3.62  , 10.219999  , 20.139999  , 22.6  , 22.299999  , 19.82  , 16.18  , 13.54  , 12.0  , 8.86  , 5.1  , 3.62  , 0.0  , 0.0  , 0.0  , 3.62  , 3.62  , 3.62  , 3.62  , 0.0  , 0.0  , 3.62  , 5.1  , 7.24  , 8.86  , 9.559999  , 10.219999  , 10.86  , 11.44  , 11.44  , 12.0  , 12.0  , 12.0  , 10.86  , 10.219999  , 9.559999  , 8.86  , 8.86  , 8.08  , 7.24  , 6.26  , 5.1  , 3.62  , 0.0  , 0.0 );
                        kernels[13] = compute_kernel(x,   13.04  , 13.04  , 13.04  , 13.54  , 14.02  , 14.02  , 14.02  , 14.02  , 13.54  , 13.54  , 13.04  , 13.04  , 13.04  , 13.04  , 12.54  , 12.54  , 12.0  , 11.44  , 9.559999  , 8.08  , 6.26  , 5.1  , 9.559999  , 12.54  , 14.02  , 14.92  , 16.18  , 16.58  , 9.559999  , 3.62  , 3.62  , 3.62  , 3.62  , 3.62  , 5.1  , 12.0  , 15.339999  , 18.799999  , 17.719999  , 17.359999  , 19.48  , 19.48  , 20.139999  , 18.459999  , 11.44  , 10.86  , 15.78  , 24.279999  , 23.18  , 21.719999  , 21.1  , 16.58  , 16.18  , 15.339999  , 15.339999  , 13.04  , 12.0  , 11.44  , 9.559999  , 8.08  , 6.26  , 6.26  , 3.62  , 0.0 );
                        kernels[14] = compute_kernel(x,   8.86  , 6.26  , 3.62  , 0.0  , 0.0  , 0.0  , 3.62  , 3.62  , 5.1  , 3.62  , 3.62  , 0.0  , 0.0  , 0.0  , 0.0  , 0.0  , 0.0  , 0.0  , 0.0  , 0.0  , 0.0  , 0.0  , 0.0  , 0.0  , 0.0  , 0.0  , 0.0  , 0.0  , 0.0  , 0.0  , 0.0  , 0.0  , 0.0  , 3.62  , 3.62  , 3.62  , 3.62  , 3.62  , 3.62  , 3.62  , 0.0  , 0.0  , 0.0  , 0.0  , 0.0  , 0.0  , 0.0  , 0.0  , 0.0  , 0.0  , 0.0  , 0.0  , 0.0  , 0.0  , 0.0  , 0.0  , 0.0  , 3.62  , 3.62  , 3.62  , 3.62  , 3.62  , 0.0  , 0.0 );
                        kernels[15] = compute_kernel(x,   12.54  , 15.339999  , 14.92  , 15.339999  , 14.48  , 14.02  , 13.54  , 13.54  , 13.54  , 13.54  , 13.04  , 12.54  , 12.54  , 12.0  , 11.44  , 10.86  , 10.219999  , 8.86  , 8.08  , 6.26  , 5.1  , 5.1  , 3.62  , 3.62  , 3.62  , 7.24  , 10.219999  , 12.0  , 14.92  , 16.58  , 13.04  , 3.62  , 7.24  , 9.559999  , 7.24  , 0.0  , 5.1  , 10.219999  , 12.54  , 19.139999  , 15.339999  , 17.719999  , 17.719999  , 17.719999  , 21.719999  , 19.139999  , 20.459999  , 14.92  , 18.799999  , 26.599998  , 18.1  , 21.719999  , 26.34  , 24.0  , 22.879999  , 21.1  , 18.1  , 15.78  , 14.92  , 16.58  , 16.98  , 10.219999  , 6.26  , 6.26 );
                        kernels[16] = compute_kernel(x,   19.48  , 19.48  , 18.799999  , 18.1  , 16.58  , 15.339999  , 14.48  , 13.54  , 13.54  , 13.04  , 13.54  , 13.04  , 12.54  , 12.54  , 12.0  , 10.86  , 10.219999  , 8.86  , 8.08  , 6.26  , 5.1  , 3.62  , 3.62  , 0.0  , 0.0  , 0.0  , 0.0  , 0.0  , 0.0  , 0.0  , 10.219999  , 13.04  , 14.48  , 16.98  , 18.799999  , 19.139999  , 13.04  , 5.1  , 3.62  , 0.0  , 0.0  , 0.0  , 3.62  , 7.24  , 10.86  , 10.86  , 14.92  , 14.48  , 13.04  , 14.92  , 16.58  , 18.799999  , 17.719999  , 13.04  , 12.54  , 18.459999  , 24.0  , 27.32  , 28.039999  , 24.539999  , 21.4  , 16.18  , 12.0  , 9.559999 );
                        kernels[17] = compute_kernel(x,   14.02  , 15.78  , 14.48  , 10.86  , 11.44  , 12.54  , 11.44  , 5.1  , 0.0  , 5.1  , 8.08  , 18.799999  , 20.139999  , 18.799999  , 20.779999  , 20.459999  , 21.719999  , 18.799999  , 18.799999  , 17.359999  , 22.299999  , 27.08  , 24.539999  , 21.4  , 22.879999  , 18.799999  , 20.459999  , 20.779999  , 18.799999  , 17.359999  , 15.78  , 13.54  , 11.44  , 8.86  , 6.26  , 3.62  , 8.86  , 15.339999  , 20.139999  , 13.04  , 6.26  , 0.0  , 3.62  , 5.1  , 7.24  , 8.08  , 7.24  , 6.26  , 6.26  , 6.26  , 5.1  , 3.62  , 0.0  , 0.0  , 3.62  , 3.62  , 5.1  , 3.62  , 0.0  , 0.0  , 0.0  , 0.0  , 0.0  , 0.0 );
                        kernels[18] = compute_kernel(x,   15.339999  , 14.92  , 14.48  , 13.54  , 13.04  , 14.48  , 13.54  , 13.04  , 11.44  , 10.219999  , 9.559999  , 8.08  , 7.24  , 3.62  , 0.0  , 3.62  , 0.0  , 0.0  , 0.0  , 0.0  , 0.0  , 0.0  , 0.0  , 0.0  , 0.0  , 0.0  , 0.0  , 0.0  , 0.0  , 0.0  , 3.62  , 3.62  , 3.62  , 3.62  , 3.62  , 3.62  , 5.1  , 5.1  , 5.1  , 5.1  , 3.62  , 0.0  , 0.0  , 0.0  , 0.0  , 0.0  , 0.0  , 0.0  , 0.0  , 0.0  , 0.0  , 0.0  , 0.0  , 0.0  , 0.0  , 0.0  , 0.0  , 3.62  , 3.62  , 3.62  , 3.62  , 3.62  , 3.62  , 3.62 );
                        kernels[19] = compute_kernel(x,   11.44  , 12.0  , 13.04  , 12.54  , 13.04  , 14.48  , 13.54  , 13.54  , 14.48  , 13.04  , 12.54  , 12.54  , 10.86  , 10.219999  , 8.86  , 7.24  , 6.26  , 5.1  , 5.1  , 5.1  , 5.1  , 10.219999  , 12.54  , 13.54  , 14.48  , 13.54  , 12.54  , 10.219999  , 8.08  , 7.24  , 6.26  , 5.1  , 3.62  , 6.26  , 8.08  , 7.24  , 8.08  , 7.24  , 6.26  , 3.62  , 3.62  , 3.62  , 3.62  , 3.62  , 3.62  , 0.0  , 0.0  , 0.0  , 0.0  , 0.0  , 0.0  , 0.0  , 0.0  , 0.0  , 0.0  , 0.0  , 3.62  , 3.62  , 3.62  , 3.62  , 3.62  , 5.1  , 5.1  , 6.26 );
                        kernels[20] = compute_kernel(x,   10.219999  , 10.219999  , 10.219999  , 10.86  , 10.86  , 11.44  , 11.44  , 11.44  , 11.44  , 11.44  , 11.44  , 10.86  , 10.219999  , 10.219999  , 9.559999  , 8.86  , 8.86  , 8.08  , 7.24  , 7.24  , 6.26  , 6.26  , 5.1  , 3.62  , 3.62  , 3.62  , 0.0  , 0.0  , 0.0  , 0.0  , 0.0  , 0.0  , 0.0  , 0.0  , 0.0  , 0.0  , 0.0  , 0.0  , 0.0  , 0.0  , 0.0  , 0.0  , 0.0  , 5.1  , 6.26  , 6.26  , 7.24  , 7.24  , 8.08  , 8.08  , 8.86  , 8.86  , 10.86  , 13.54  , 13.54  , 14.48  , 13.04  , 12.54  , 13.04  , 12.0  , 11.44  , 12.0  , 10.86  , 9.559999 );
                        kernels[21] = compute_kernel(x,   9.559999  , 9.559999  , 10.219999  , 9.559999  , 9.559999  , 9.559999  , 9.559999  , 8.86  , 8.08  , 7.24  , 6.26  , 6.26  , 5.1  , 5.1  , 3.62  , 3.62  , 3.62  , 3.62  , 0.0  , 0.0  , 0.0  , 0.0  , 0.0  , 0.0  , 0.0  , 0.0  , 3.62  , 6.26  , 7.24  , 8.86  , 8.86  , 10.219999  , 10.86  , 11.44  , 13.04  , 13.54  , 12.0  , 12.0  , 10.86  , 10.219999  , 8.86  , 7.24  , 6.26  , 3.62  , 0.0  , 0.0  , 0.0  , 0.0  , 0.0  , 0.0  , 0.0  , 0.0  , 0.0  , 0.0  , 0.0  , 0.0  , 0.0  , 0.0  , 0.0  , 0.0  , 0.0  , 0.0  , 0.0  , 0.0 );
                        kernels[22] = compute_kernel(x,   11.44  , 11.44  , 12.54  , 10.219999  , 9.559999  , 8.86  , 9.559999  , 9.559999  , 8.86  , 8.86  , 8.08  , 6.26  , 5.1  , 3.62  , 3.62  , 0.0  , 0.0  , 0.0  , 3.62  , 0.0  , 3.62  , 3.62  , 3.62  , 5.1  , 6.26  , 8.08  , 9.559999  , 10.86  , 12.0  , 12.0  , 11.44  , 10.219999  , 9.559999  , 7.24  , 5.1  , 3.62  , 0.0  , 0.0  , 0.0  , 0.0  , 3.62  , 3.62  , 3.62  , 5.1  , 5.1  , 5.1  , 6.26  , 6.26  , 6.26  , 6.26  , 6.26  , 6.26  , 6.26  , 6.26  , 5.1  , 5.1  , 5.1  , 5.1  , 3.62  , 3.62  , 3.62  , 3.62  , 3.62  , 3.62 );
                        kernels[23] = compute_kernel(x,   12.54  , 13.04  , 13.04  , 12.0  , 12.0  , 12.0  , 10.219999  , 9.559999  , 8.86  , 7.24  , 7.24  , 5.1  , 5.1  , 3.62  , 3.62  , 3.62  , 5.1  , 5.1  , 7.24  , 7.24  , 10.219999  , 12.54  , 13.04  , 13.54  , 13.54  , 12.54  , 13.04  , 12.54  , 13.54  , 10.86  , 11.44  , 10.219999  , 9.559999  , 8.86  , 8.08  , 8.08  , 8.08  , 8.86  , 7.24  , 5.1  , 3.62  , 0.0  , 3.62  , 3.62  , 0.0  , 0.0  , 0.0  , 0.0  , 0.0  , 0.0  , 0.0  , 0.0  , 0.0  , 0.0  , 0.0  , 0.0  , 0.0  , 0.0  , 0.0  , 0.0  , 0.0  , 0.0  , 0.0  , 0.0 );
                        kernels[24] = compute_kernel(x,   10.86  , 10.86  , 11.44  , 12.0  , 11.44  , 11.44  , 11.44  , 10.86  , 10.219999  , 10.219999  , 9.559999  , 8.86  , 8.08  , 6.26  , 6.26  , 5.1  , 3.62  , 0.0  , 0.0  , 0.0  , 0.0  , 0.0  , 0.0  , 0.0  , 0.0  , 0.0  , 0.0  , 0.0  , 0.0  , 0.0  , 0.0  , 0.0  , 0.0  , 0.0  , 0.0  , 0.0  , 0.0  , 0.0  , 0.0  , 0.0  , 0.0  , 0.0  , 0.0  , 0.0  , 0.0  , 0.0  , 0.0  , 0.0  , 0.0  , 3.62  , 3.62  , 0.0  , 0.0  , 0.0  , 0.0  , 0.0  , 0.0  , 0.0  , 0.0  , 0.0  , 0.0  , 0.0  , 0.0  , 0.0 );
                        kernels[25] = compute_kernel(x,   12.0  , 13.04  , 14.48  , 15.78  , 16.58  , 16.98  , 16.98  , 16.98  , 16.58  , 16.18  , 15.339999  , 14.48  , 14.92  , 22.02  , 21.719999  , 17.359999  , 15.78  , 16.18  , 15.78  , 16.18  , 15.78  , 15.78  , 24.279999  , 24.82  , 26.84  , 26.099998  , 26.599998  , 27.799999  , 26.099998  , 26.599998  , 25.84  , 24.82  , 23.18  , 21.719999  , 21.1  , 19.139999  , 18.1  , 16.58  , 15.339999  , 13.54  , 13.04  , 14.02  , 13.04  , 12.54  , 10.86  , 9.559999  , 13.54  , 12.0  , 15.78  , 18.459999  , 14.02  , 11.44  , 16.98  , 19.48  , 13.04  , 16.18  , 18.1  , 11.44  , 14.02  , 8.08  , 9.559999  , 8.08  , 11.44  , 3.62 );
                        kernels[26] = compute_kernel(x,   12.0  , 13.04  , 14.02  , 14.02  , 14.02  , 13.54  , 13.54  , 13.04  , 13.04  , 12.54  , 12.54  , 12.54  , 12.0  , 11.44  , 10.86  , 10.219999  , 9.559999  , 8.86  , 8.08  , 7.24  , 6.26  , 6.26  , 6.26  , 5.1  , 5.1  , 5.1  , 3.62  , 3.62  , 3.62  , 3.62  , 3.62  , 0.0  , 0.0  , 0.0  , 0.0  , 0.0  , 3.62  , 3.62  , 5.1  , 5.1  , 6.26  , 6.26  , 6.26  , 8.08  , 10.219999  , 10.86  , 10.86  , 12.0  , 11.44  , 11.44  , 12.0  , 10.219999  , 10.219999  , 10.219999  , 9.559999  , 10.219999  , 10.219999  , 10.86  , 10.86  , 10.86  , 11.44  , 10.86  , 10.219999  , 10.219999 );
                        kernels[27] = compute_kernel(x,   12.54  , 13.54  , 13.54  , 14.02  , 14.48  , 14.48  , 14.02  , 13.54  , 18.1  , 18.1  , 17.359999  , 19.139999  , 17.719999  , 17.359999  , 17.359999  , 16.18  , 15.78  , 15.339999  , 13.04  , 12.54  , 10.86  , 11.44  , 11.44  , 10.219999  , 8.86  , 6.26  , 6.26  , 5.1  , 3.62  , 0.0  , 0.0  , 0.0  , 0.0  , 0.0  , 0.0  , 0.0  , 0.0  , 0.0  , 0.0  , 0.0  , 0.0  , 0.0  , 0.0  , 0.0  , 0.0  , 0.0  , 0.0  , 0.0  , 0.0  , 0.0  , 0.0  , 0.0  , 0.0  , 0.0  , 0.0  , 0.0  , 0.0  , 0.0  , 0.0  , 0.0  , 0.0  , 0.0  , 0.0  , 0.0 );
                        kernels[28] = compute_kernel(x,   12.0  , 12.54  , 12.54  , 12.54  , 12.0  , 12.0  , 12.0  , 12.0  , 11.44  , 10.86  , 10.86  , 10.86  , 10.219999  , 9.559999  , 8.86  , 8.86  , 8.08  , 7.24  , 7.24  , 6.26  , 5.1  , 5.1  , 5.1  , 3.62  , 3.62  , 3.62  , 0.0  , 0.0  , 0.0  , 0.0  , 0.0  , 0.0  , 0.0  , 0.0  , 0.0  , 0.0  , 0.0  , 0.0  , 0.0  , 0.0  , 0.0  , 0.0  , 0.0  , 3.62  , 3.62  , 3.62  , 3.62  , 3.62  , 3.62  , 3.62  , 5.1  , 3.62  , 3.62  , 3.62  , 3.62  , 3.62  , 0.0  , 0.0  , 0.0  , 0.0  , 0.0  , 0.0  , 0.0  , 0.0 );
                        kernels[29] = compute_kernel(x,   11.44  , 12.0  , 12.54  , 13.04  , 13.54  , 15.339999  , 17.719999  , 19.139999  , 18.459999  , 20.459999  , 20.459999  , 19.82  , 20.459999  , 18.1  , 17.719999  , 18.459999  , 15.78  , 15.339999  , 13.54  , 12.0  , 11.44  , 10.219999  , 10.219999  , 9.559999  , 8.08  , 6.26  , 5.1  , 5.1  , 3.62  , 0.0  , 0.0  , 0.0  , 0.0  , 0.0  , 0.0  , 0.0  , 0.0  , 0.0  , 0.0  , 0.0  , 0.0  , 0.0  , 0.0  , 0.0  , 0.0  , 0.0  , 0.0  , 0.0  , 0.0  , 0.0  , 0.0  , 0.0  , 0.0  , 0.0  , 0.0  , 0.0  , 0.0  , 0.0  , 0.0  , 0.0  , 0.0  , 0.0  , 0.0  , 0.0 );
                        kernels[30] = compute_kernel(x,   10.86  , 11.44  , 12.54  , 13.04  , 14.48  , 14.92  , 15.339999  , 14.02  , 14.92  , 14.92  , 14.92  , 14.02  , 10.86  , 12.54  , 12.0  , 9.559999  , 8.08  , 8.08  , 6.26  , 6.26  , 5.1  , 7.24  , 6.26  , 5.1  , 3.62  , 0.0  , 0.0  , 0.0  , 0.0  , 0.0  , 0.0  , 0.0  , 0.0  , 0.0  , 0.0  , 0.0  , 0.0  , 0.0  , 0.0  , 0.0  , 0.0  , 3.62  , 3.62  , 5.1  , 5.1  , 6.26  , 6.26  , 6.26  , 6.26  , 6.26  , 7.24  , 8.08  , 8.86  , 9.559999  , 9.559999  , 10.219999  , 10.86  , 10.86  , 11.44  , 12.0  , 12.0  , 12.0  , 12.0  , 12.0 );
                        kernels[31] = compute_kernel(x,   10.86  , 10.86  , 10.86  , 10.86  , 11.44  , 11.44  , 11.44  , 11.44  , 11.44  , 11.44  , 11.44  , 11.44  , 11.44  , 10.86  , 10.219999  , 10.219999  , 9.559999  , 8.86  , 8.08  , 7.24  , 7.24  , 6.26  , 6.26  , 5.1  , 5.1  , 5.1  , 3.62  , 3.62  , 3.62  , 0.0  , 0.0  , 0.0  , 0.0  , 0.0  , 0.0  , 0.0  , 0.0  , 0.0  , 0.0  , 0.0  , 0.0  , 0.0  , 0.0  , 0.0  , 0.0  , 0.0  , 0.0  , 0.0  , 0.0  , 0.0  , 0.0  , 0.0  , 0.0  , 0.0  , 0.0  , 0.0  , 0.0  , 0.0  , 0.0  , 0.0  , 0.0  , 0.0  , 0.0  , 0.0 );
                        kernels[32] = compute_kernel(x,   12.54  , 14.02  , 14.92  , 15.78  , 16.18  , 16.58  , 16.18  , 16.18  , 15.339999  , 14.92  , 14.48  , 14.02  , 13.54  , 13.04  , 13.04  , 13.04  , 12.54  , 12.0  , 11.44  , 10.219999  , 9.559999  , 8.08  , 6.26  , 5.1  , 5.1  , 6.26  , 5.1  , 5.1  , 5.1  , 6.26  , 6.26  , 6.26  , 6.26  , 6.26  , 6.26  , 5.1  , 6.26  , 5.1  , 5.1  , 5.1  , 5.1  , 5.1  , 5.1  , 3.62  , 3.62  , 3.62  , 3.62  , 3.62  , 0.0  , 0.0  , 0.0  , 0.0  , 0.0  , 0.0  , 0.0  , 0.0  , 0.0  , 0.0  , 0.0  , 0.0  , 0.0  , 0.0  , 0.0  , 0.0 );
                        kernels[33] = compute_kernel(x,   12.0  , 14.02  , 16.18  , 17.719999  , 18.799999  , 18.799999  , 18.799999  , 18.1  , 17.359999  , 16.58  , 15.78  , 15.339999  , 14.48  , 14.02  , 13.04  , 12.54  , 11.44  , 10.219999  , 9.559999  , 9.559999  , 8.86  , 8.08  , 7.24  , 6.26  , 6.26  , 5.1  , 3.62  , 3.62  , 3.62  , 0.0  , 6.26  , 9.559999  , 9.559999  , 10.86  , 11.44  , 12.0  , 12.54  , 19.139999  , 23.18  , 23.459999  , 26.099998  , 27.559999  , 29.84  , 30.279999  , 31.559999  , 30.5  , 29.619999  , 26.84  , 24.279999  , 24.279999  , 21.719999  , 20.139999  , 18.1  , 16.58  , 14.92  , 12.54  , 10.219999  , 8.86  , 9.559999  , 12.0  , 14.48  , 13.54  , 14.48  , 15.339999 );
                        kernels[34] = compute_kernel(x,   10.219999  , 9.559999  , 9.559999  , 8.86  , 8.08  , 8.08  , 7.24  , 6.26  , 5.1  , 5.1  , 3.62  , 3.62  , 0.0  , 0.0  , 0.0  , 0.0  , 0.0  , 0.0  , 0.0  , 0.0  , 0.0  , 0.0  , 0.0  , 0.0  , 0.0  , 0.0  , 0.0  , 0.0  , 3.62  , 3.62  , 3.62  , 3.62  , 3.62  , 3.62  , 0.0  , 0.0  , 0.0  , 0.0  , 0.0  , 0.0  , 0.0  , 0.0  , 0.0  , 0.0  , 0.0  , 0.0  , 0.0  , 0.0  , 0.0  , 0.0  , 0.0  , 0.0  , 0.0  , 0.0  , 0.0  , 0.0  , 0.0  , 0.0  , 0.0  , 0.0  , 0.0  , 0.0  , 0.0  , 0.0 );
                        kernels[35] = compute_kernel(x,   13.54  , 13.04  , 12.54  , 12.0  , 11.44  , 10.86  , 10.219999  , 9.559999  , 9.559999  , 8.86  , 8.08  , 8.08  , 7.24  , 7.24  , 7.24  , 8.08  , 8.86  , 8.08  , 8.08  , 7.24  , 7.24  , 8.08  , 10.86  , 11.44  , 12.54  , 12.54  , 13.54  , 13.54  , 14.48  , 14.48  , 14.92  , 15.78  , 13.54  , 12.54  , 14.48  , 16.58  , 17.719999  , 14.48  , 12.54  , 12.54  , 12.54  , 13.54  , 13.54  , 15.78  , 16.58  , 18.459999  , 20.139999  , 18.459999  , 19.82  , 19.82  , 18.799999  , 17.359999  , 16.98  , 17.359999  , 17.719999  , 14.02  , 13.04  , 8.08  , 7.24  , 7.24  , 6.26  , 5.1  , 6.26  , 6.26 );
                        kernels[36] = compute_kernel(x,   13.04  , 14.02  , 14.48  , 14.48  , 14.48  , 14.02  , 13.54  , 12.54  , 11.44  , 10.219999  , 9.559999  , 8.86  , 8.08  , 7.24  , 5.1  , 3.62  , 0.0  , 0.0  , 0.0  , 0.0  , 0.0  , 0.0  , 3.62  , 6.26  , 8.08  , 8.86  , 8.08  , 8.08  , 6.26  , 5.1  , 8.86  , 9.559999  , 10.219999  , 10.86  , 12.54  , 13.04  , 14.02  , 22.879999  , 24.279999  , 24.0  , 25.34  , 27.799999  , 30.059999  , 30.059999  , 30.92  , 31.559999  , 28.719999  , 27.559999  , 28.039999  , 25.84  , 24.0  , 23.459999  , 20.459999  , 19.139999  , 16.98  , 14.02  , 12.54  , 12.0  , 11.44  , 12.54  , 14.48  , 14.92  , 12.54  , 14.48 );
                        kernels[37] = compute_kernel(x,   10.86  , 11.44  , 12.54  , 10.219999  , 10.86  , 10.86  , 11.44  , 10.86  , 10.86  , 12.0  , 10.86  , 10.86  , 11.44  , 10.219999  , 10.219999  , 10.219999  , 9.559999  , 8.86  , 8.86  , 8.08  , 6.26  , 6.26  , 5.1  , 5.1  , 0.0  , 0.0  , 0.0  , 0.0  , 0.0  , 0.0  , 0.0  , 0.0  , 0.0  , 0.0  , 0.0  , 0.0  , 0.0  , 0.0  , 0.0  , 0.0  , 0.0  , 0.0  , 0.0  , 0.0  , 0.0  , 0.0  , 0.0  , 0.0  , 0.0  , 0.0  , 0.0  , 0.0  , 0.0  , 0.0  , 0.0  , 0.0  , 0.0  , 0.0  , 0.0  , 0.0  , 0.0  , 0.0  , 0.0  , 0.0 );
                        kernels[38] = compute_kernel(x,   11.44  , 10.86  , 11.44  , 13.04  , 12.54  , 13.54  , 13.54  , 13.54  , 14.02  , 12.54  , 12.54  , 12.54  , 11.44  , 10.86  , 10.86  , 9.559999  , 8.86  , 8.86  , 7.24  , 7.24  , 5.1  , 3.62  , 0.0  , 0.0  , 0.0  , 0.0  , 0.0  , 0.0  , 0.0  , 0.0  , 0.0  , 0.0  , 0.0  , 0.0  , 0.0  , 0.0  , 0.0  , 0.0  , 0.0  , 0.0  , 0.0  , 0.0  , 0.0  , 0.0  , 0.0  , 0.0  , 0.0  , 0.0  , 0.0  , 0.0  , 0.0  , 0.0  , 0.0  , 0.0  , 0.0  , 0.0  , 0.0  , 0.0  , 0.0  , 0.0  , 0.0  , 0.0  , 0.0  , 0.0 );
                        kernels[39] = compute_kernel(x,   12.54  , 9.559999  , 10.219999  , 8.08  , 8.86  , 6.26  , 5.1  , 6.26  , 8.86  , 6.26  , 7.24  , 8.08  , 6.26  , 5.1  , 5.1  , 5.1  , 8.86  , 3.62  , 0.0  , 0.0  , 0.0  , 0.0  , 0.0  , 0.0  , 0.0  , 0.0  , 0.0  , 0.0  , 0.0  , 0.0  , 0.0  , 3.62  , 3.62  , 3.62  , 3.62  , 0.0  , 0.0  , 0.0  , 0.0  , 3.62  , 3.62  , 3.62  , 3.62  , 5.1  , 5.1  , 5.1  , 6.26  , 7.24  , 7.24  , 6.26  , 6.26  , 6.26  , 6.26  , 6.26  , 6.26  , 6.26  , 6.26  , 6.26  , 6.26  , 6.26  , 6.26  , 6.26  , 6.26  , 5.1 );
                        kernels[40] = compute_kernel(x,   8.86  , 9.559999  , 8.08  , 6.26  , 7.24  , 8.08  , 5.1  , 3.62  , 3.62  , 3.62  , 3.62  , 5.1  , 6.26  , 7.24  , 6.26  , 7.24  , 3.62  , 0.0  , 6.26  , 9.559999  , 11.44  , 12.54  , 13.04  , 12.54  , 12.0  , 13.04  , 14.02  , 14.02  , 12.0  , 8.86  , 5.1  , 0.0  , 0.0  , 0.0  , 0.0  , 0.0  , 0.0  , 0.0  , 0.0  , 0.0  , 0.0  , 0.0  , 0.0  , 0.0  , 0.0  , 0.0  , 0.0  , 0.0  , 0.0  , 0.0  , 0.0  , 0.0  , 0.0  , 0.0  , 0.0  , 0.0  , 3.62  , 7.24  , 7.24  , 7.24  , 6.26  , 5.1  , 0.0  , 0.0 );
                        kernels[41] = compute_kernel(x,   7.24  , 5.1  , 10.219999  , 13.04  , 16.98  , 20.139999  , 18.1  , 21.1  , 20.139999  , 18.1  , 17.359999  , 15.339999  , 14.02  , 13.54  , 12.0  , 11.44  , 10.86  , 10.219999  , 9.559999  , 8.08  , 10.219999  , 7.24  , 7.24  , 7.24  , 8.08  , 6.26  , 5.1  , 5.1  , 3.62  , 0.0  , 0.0  , 0.0  , 0.0  , 0.0  , 0.0  , 0.0  , 0.0  , 0.0  , 0.0  , 0.0  , 0.0  , 0.0  , 0.0  , 0.0  , 0.0  , 3.62  , 3.62  , 3.62  , 3.62  , 0.0  , 0.0  , 0.0  , 0.0  , 0.0  , 0.0  , 0.0  , 0.0  , 0.0  , 0.0  , 0.0  , 0.0  , 0.0  , 0.0  , 0.0 );
                        kernels[42] = compute_kernel(x,   12.54  , 12.54  , 10.86  , 8.08  , 5.1  , 3.62  , 0.0  , 0.0  , 0.0  , 0.0  , 0.0  , 0.0  , 3.62  , 3.62  , 5.1  , 5.1  , 5.1  , 5.1  , 6.26  , 6.26  , 6.26  , 7.24  , 7.24  , 7.24  , 7.24  , 7.24  , 8.08  , 8.08  , 8.08  , 8.86  , 8.86  , 8.86  , 8.86  , 8.86  , 8.08  , 7.24  , 7.24  , 6.26  , 6.26  , 5.1  , 5.1  , 5.1  , 3.62  , 3.62  , 3.62  , 0.0  , 3.62  , 3.62  , 0.0  , 0.0  , 0.0  , 0.0  , 0.0  , 0.0  , 0.0  , 0.0  , 0.0  , 0.0  , 3.62  , 5.1  , 6.26  , 164.259995  , 105.360001  , 48.559998 );
                        kernels[43] = compute_kernel(x,   16.98  , 17.359999  , 17.719999  , 13.54  , 16.98  , 7.24  , 10.219999  , 8.86  , 5.1  , 5.1  , 3.62  , 6.26  , 13.04  , 27.08  , 33.759998  , 29.179998  , 20.779999  , 15.339999  , 12.54  , 11.44  , 10.219999  , 8.08  , 7.24  , 6.26  , 5.1  , 3.62  , 0.0  , 0.0  , 0.0  , 0.0  , 0.0  , 0.0  , 0.0  , 0.0  , 0.0  , 0.0  , 3.62  , 0.0  , 0.0  , 0.0  , 0.0  , 0.0  , 0.0  , 0.0  , 0.0  , 0.0  , 0.0  , 0.0  , 0.0  , 3.62  , 5.1  , 8.08  , 10.86  , 14.48  , 18.1  , 19.82  , 19.48  , 17.359999  , 16.98  , 16.58  , 14.02  , 13.04  , 14.92  , 18.1 );
                        kernels[44] = compute_kernel(x,   24.82  , 22.879999  , 19.48  , 16.98  , 14.92  , 10.219999  , 8.08  , 7.24  , 7.24  , 10.86  , 10.219999  , 10.219999  , 6.26  , 8.86  , 16.58  , 18.799999  , 17.359999  , 18.459999  , 17.719999  , 20.459999  , 21.719999  , 19.82  , 16.98  , 14.02  , 13.04  , 13.04  , 10.86  , 8.86  , 7.24  , 8.08  , 5.1  , 3.62  , 0.0  , 3.62  , 3.62  , 0.0  , 0.0  , 0.0  , 0.0  , 0.0  , 0.0  , 0.0  , 0.0  , 0.0  , 0.0  , 0.0  , 0.0  , 0.0  , 0.0  , 0.0  , 0.0  , 0.0  , 0.0  , 0.0  , 0.0  , 0.0  , 0.0  , 0.0  , 0.0  , 0.0  , 0.0  , 3.62  , 5.1  , 5.1 );
                        kernels[45] = compute_kernel(x,   8.86  , 9.559999  , 8.86  , 7.24  , 6.26  , 3.62  , 5.1  , 8.08  , 8.86  , 8.86  , 18.1  , 22.299999  , 15.339999  , 8.08  , 7.24  , 14.02  , 15.339999  , 16.18  , 10.219999  , 9.559999  , 8.86  , 8.08  , 5.1  , 6.26  , 8.86  , 8.86  , 5.1  , 7.24  , 3.62  , 8.08  , 7.24  , 10.219999  , 11.44  , 12.0  , 11.44  , 12.54  , 9.559999  , 6.26  , 7.24  , 9.559999  , 12.0  , 12.54  , 10.219999  , 8.08  , 5.1  , 3.62  , 3.62  , 3.62  , 0.0  , 0.0  , 0.0  , 0.0  , 0.0  , 0.0  , 0.0  , 0.0  , 0.0  , 0.0  , 0.0  , 0.0  , 0.0  , 0.0  , 0.0  , 0.0 );
                        kernels[46] = compute_kernel(x,   13.04  , 15.339999  , 16.98  , 18.1  , 19.139999  , 18.799999  , 18.1  , 17.719999  , 16.58  , 15.78  , 14.48  , 14.02  , 13.04  , 12.54  , 11.44  , 10.86  , 10.219999  , 9.559999  , 8.86  , 8.08  , 7.24  , 5.1  , 5.1  , 3.62  , 3.62  , 0.0  , 0.0  , 0.0  , 0.0  , 0.0  , 0.0  , 0.0  , 0.0  , 0.0  , 0.0  , 0.0  , 0.0  , 0.0  , 0.0  , 0.0  , 14.92  , 13.54  , 12.54  , 12.0  , 12.0  , 8.86  , 3.62  , 6.26  , 7.24  , 7.24  , 9.559999  , 9.559999  , 8.86  , 7.24  , 5.1  , 5.1  , 5.1  , 0.0  , 0.0  , 0.0  , 3.62  , 5.1  , 12.54  , 25.599998 );
                        kernels[47] = compute_kernel(x,   10.86  , 10.86  , 11.44  , 11.44  , 11.44  , 12.0  , 12.0  , 11.44  , 11.44  , 10.86  , 10.219999  , 9.559999  , 9.559999  , 9.559999  , 9.559999  , 9.559999  , 9.559999  , 9.559999  , 9.559999  , 9.559999  , 9.559999  , 9.559999  , 9.559999  , 9.559999  , 9.559999  , 10.219999  , 10.219999  , 9.559999  , 8.86  , 9.559999  , 9.559999  , 10.219999  , 10.86  , 11.44  , 11.44  , 11.44  , 11.44  , 98.220001  , 91.299995  , 55.139999  , 50.419998  , 53.82  , 51.32  , 22.6  , 20.459999  , 20.459999  , 11.44  , 30.279999  , 30.5  , 28.5  , 26.099998  , 24.82  , 23.459999  , 21.719999  , 11.44  , 6.26  , 6.26  , 6.26  , 12.54  , 21.719999  , 50.799999  , 99.919998  , 82.540001  , 37.959999 );
                        kernels[48] = compute_kernel(x,   13.04  , 14.48  , 15.78  , 16.58  , 17.359999  , 17.359999  , 17.359999  , 16.98  , 16.58  , 15.78  , 14.92  , 14.48  , 14.02  , 14.48  , 14.02  , 13.54  , 13.04  , 12.0  , 11.44  , 9.559999  , 8.08  , 7.24  , 6.26  , 5.1  , 5.1  , 3.62  , 3.62  , 3.62  , 3.62  , 3.62  , 3.62  , 3.62  , 3.62  , 3.62  , 3.62  , 3.62  , 3.62  , 3.62  , 3.62  , 3.62  , 0.0  , 0.0  , 0.0  , 0.0  , 0.0  , 0.0  , 0.0  , 0.0  , 0.0  , 0.0  , 0.0  , 0.0  , 9.559999  , 91.799995  , 54.779999  , 39.639999  , 40.939999  , 41.579998  , 32.380001  , 10.219999  , 25.84  , 33.559998  , 36.200001  , 32.380001 );
                        kernels[49] = compute_kernel(x,   14.02  , 16.98  , 19.48  , 20.779999  , 20.139999  , 18.799999  , 17.719999  , 16.98  , 16.18  , 15.78  , 15.339999  , 14.92  , 14.02  , 13.54  , 12.54  , 12.0  , 11.44  , 10.86  , 10.219999  , 9.559999  , 9.559999  , 9.559999  , 8.86  , 8.86  , 8.08  , 8.08  , 7.24  , 6.26  , 6.26  , 5.1  , 5.1  , 3.62  , 3.62  , 3.62  , 3.62  , 0.0  , 0.0  , 0.0  , 0.0  , 0.0  , 0.0  , 0.0  , 0.0  , 0.0  , 0.0  , 0.0  , 0.0  , 0.0  , 0.0  , 0.0  , 0.0  , 0.0  , 0.0  , 0.0  , 0.0  , 0.0  , 3.62  , 3.62  , 3.62  , 3.62  , 3.62  , 3.62  , 3.62  , 3.62 );
                        kernels[50] = compute_kernel(x,   29.84  , 27.08  , 25.84  , 23.18  , 12.0  , 12.0  , 10.219999  , 10.219999  , 13.04  , 14.48  , 18.459999  , 20.779999  , 19.48  , 18.459999  , 16.58  , 13.04  , 10.86  , 8.08  , 6.26  , 5.1  , 6.26  , 11.44  , 25.08  , 16.18  , 7.24  , 14.92  , 21.719999  , 21.1  , 17.719999  , 15.339999  , 12.54  , 11.44  , 9.559999  , 7.24  , 5.1  , 3.62  , 13.04  , 12.0  , 7.24  , 8.86  , 6.26  , 9.559999  , 11.44  , 11.44  , 14.92  , 14.48  , 14.92  , 14.48  , 14.92  , 14.02  , 14.02  , 12.0  , 12.0  , 13.54  , 10.219999  , 8.86  , 8.86  , 7.24  , 7.24  , 7.24  , 7.24  , 6.26  , 5.1  , 3.62 );
                        kernels[51] = compute_kernel(x,   10.86  , 11.44  , 12.54  , 13.04  , 13.54  , 14.02  , 14.02  , 14.02  , 13.54  , 13.04  , 12.54  , 12.0  , 11.44  , 11.44  , 10.86  , 10.86  , 10.219999  , 9.559999  , 8.86  , 8.86  , 8.08  , 7.24  , 6.26  , 5.1  , 3.62  , 3.62  , 0.0  , 0.0  , 0.0  , 0.0  , 0.0  , 0.0  , 0.0  , 0.0  , 0.0  , 0.0  , 0.0  , 0.0  , 0.0  , 0.0  , 0.0  , 0.0  , 0.0  , 0.0  , 0.0  , 0.0  , 0.0  , 0.0  , 0.0  , 0.0  , 0.0  , 0.0  , 0.0  , 0.0  , 10.86  , 21.4  , 19.48  , 18.1  , 20.139999  , 16.58  , 6.26  , 6.26  , 6.26  , 6.26 );
                        kernels[52] = compute_kernel(x,   11.44  , 11.44  , 12.0  , 12.0  , 12.0  , 12.0  , 12.0  , 12.0  , 11.44  , 10.86  , 9.559999  , 8.86  , 8.86  , 8.08  , 7.24  , 6.26  , 6.26  , 5.1  , 3.62  , 0.0  , 0.0  , 0.0  , 0.0  , 0.0  , 3.62  , 3.62  , 5.1  , 5.1  , 5.1  , 5.1  , 5.1  , 5.1  , 5.1  , 5.1  , 5.1  , 5.1  , 3.62  , 3.62  , 3.62  , 3.62  , 0.0  , 0.0  , 0.0  , 0.0  , 0.0  , 0.0  , 0.0  , 0.0  , 0.0  , 0.0  , 0.0  , 0.0  , 0.0  , 0.0  , 0.0  , 0.0  , 0.0  , 23.18  , 24.0  , 20.779999  , 19.82  , 17.719999  , 16.98  , 16.18 );
                        kernels[53] = compute_kernel(x,   22.879999  , 21.4  , 19.82  , 19.82  , 14.02  , 6.26  , 6.26  , 6.26  , 6.26  , 7.24  , 7.24  , 7.24  , 7.24  , 6.26  , 6.26  , 5.1  , 3.62  , 0.0  , 0.0  , 0.0  , 0.0  , 0.0  , 0.0  , 6.26  , 10.219999  , 3.62  , 0.0  , 5.1  , 5.1  , 5.1  , 3.62  , 3.62  , 0.0  , 0.0  , 0.0  , 0.0  , 0.0  , 0.0  , 0.0  , 0.0  , 0.0  , 0.0  , 0.0  , 3.62  , 5.1  , 6.26  , 6.26  , 7.24  , 8.86  , 9.559999  , 11.44  , 12.0  , 11.44  , 8.86  , 8.08  , 6.26  , 5.1  , 3.62  , 0.0  , 0.0  , 0.0  , 0.0  , 0.0  , 0.0 );
                        kernels[54] = compute_kernel(x,   9.559999  , 9.559999  , 8.86  , 8.08  , 6.26  , 3.62  , 3.62  , 5.1  , 3.62  , 5.1  , 5.1  , 7.24  , 19.139999  , 23.459999  , 16.58  , 5.1  , 10.219999  , 16.58  , 18.459999  , 20.779999  , 18.1  , 13.04  , 10.86  , 10.86  , 8.08  , 7.24  , 7.24  , 6.26  , 6.26  , 3.62  , 3.62  , 3.62  , 0.0  , 0.0  , 6.26  , 9.559999  , 11.44  , 14.02  , 18.459999  , 17.719999  , 20.779999  , 20.779999  , 18.1  , 16.98  , 15.78  , 13.04  , 14.02  , 12.0  , 12.54  , 10.86  , 7.24  , 6.26  , 5.1  , 6.26  , 5.1  , 3.62  , 3.62  , 3.62  , 3.62  , 0.0  , 0.0  , 0.0  , 0.0  , 0.0 );
                        kernels[55] = compute_kernel(x,   10.86  , 9.559999  , 7.24  , 5.1  , 5.1  , 3.62  , 3.62  , 10.219999  , 7.24  , 8.86  , 14.02  , 19.139999  , 17.719999  , 12.0  , 22.6  , 20.139999  , 18.459999  , 18.1  , 18.1  , 17.359999  , 15.78  , 8.08  , 8.86  , 6.26  , 8.08  , 6.26  , 8.08  , 5.1  , 8.08  , 5.1  , 5.1  , 6.26  , 6.26  , 3.62  , 5.1  , 3.62  , 0.0  , 5.1  , 3.62  , 3.62  , 0.0  , 0.0  , 0.0  , 0.0  , 0.0  , 0.0  , 3.62  , 6.26  , 7.24  , 8.08  , 8.86  , 10.219999  , 11.44  , 12.0  , 12.54  , 13.04  , 13.04  , 12.0  , 12.0  , 11.44  , 10.86  , 9.559999  , 8.86  , 8.86 );
                        kernels[56] = compute_kernel(x,   9.559999  , 8.86  , 7.24  , 7.24  , 8.08  , 9.559999  , 10.219999  , 11.44  , 12.0  , 12.54  , 12.54  , 12.54  , 11.44  , 9.559999  , 8.08  , 8.08  , 8.08  , 8.08  , 8.08  , 8.08  , 7.24  , 7.24  , 6.26  , 5.1  , 5.1  , 3.62  , 3.62  , 3.62  , 3.62  , 3.62  , 3.62  , 3.62  , 3.62  , 3.62  , 0.0  , 0.0  , 0.0  , 0.0  , 3.62  , 0.0  , 0.0  , 3.62  , 0.0  , 0.0  , 0.0  , 0.0  , 0.0  , 0.0  , 0.0  , 0.0  , 0.0  , 0.0  , 0.0  , 0.0  , 0.0  , 0.0  , 0.0  , 0.0  , 0.0  , 0.0  , 0.0  , 0.0  , 0.0  , 0.0 );
                        kernels[57] = compute_kernel(x,   12.0  , 13.04  , 13.04  , 13.04  , 12.0  , 10.86  , 10.219999  , 9.559999  , 8.86  , 7.24  , 6.26  , 6.26  , 7.24  , 7.24  , 7.24  , 8.08  , 8.08  , 7.24  , 6.26  , 5.1  , 5.1  , 5.1  , 3.62  , 0.0  , 0.0  , 0.0  , 0.0  , 0.0  , 0.0  , 0.0  , 0.0  , 0.0  , 0.0  , 0.0  , 0.0  , 0.0  , 0.0  , 0.0  , 0.0  , 0.0  , 0.0  , 0.0  , 0.0  , 0.0  , 0.0  , 22.02  , 22.879999  , 15.78  , 14.48  , 14.02  , 14.92  , 8.08  , 8.08  , 8.86  , 8.86  , 10.219999  , 8.86  , 8.08  , 7.24  , 5.1  , 3.62  , 3.62  , 3.62  , 0.0 );
                        kernels[58] = compute_kernel(x,   24.82  , 22.879999  , 21.4  , 19.48  , 17.719999  , 16.18  , 23.459999  , 25.599998  , 74.639999  , 59.139999  , 17.359999  , 12.54  , 46.639999  , 55.719997  , 59.259998  , 52.579998  , 41.099998  , 37.799999  , 25.34  , 18.799999  , 16.58  , 20.459999  , 15.339999  , 22.299999  , 27.799999  , 21.719999  , 31.139999  , 44.32  , 49.899998  , 44.779999  , 33.559998  , 19.82  , 31.76  , 26.34  , 22.879999  , 19.139999  , 10.219999  , 15.339999  , 8.86  , 10.86  , 15.339999  , 10.219999  , 8.08  , 9.559999  , 7.24  , 8.86  , 16.98  , 22.6  , 27.08  , 28.26  , 25.34  , 19.48  , 13.54  , 10.219999  , 8.08  , 6.26  , 3.62  , 0.0  , 0.0  , 0.0  , 3.62  , 5.1  , 5.1  , 6.26 );
                        kernels[59] = compute_kernel(x,   29.84  , 31.559999  , 30.5  , 30.92  , 19.82  , 20.459999  , 16.58  , 15.339999  , 13.54  , 13.04  , 24.0  , 23.459999  , 10.86  , 14.02  , 20.459999  , 20.779999  , 18.1  , 12.54  , 8.08  , 9.559999  , 3.62  , 3.62  , 0.0  , 3.62  , 0.0  , 0.0  , 0.0  , 0.0  , 3.62  , 10.219999  , 18.459999  , 24.0  , 24.82  , 22.879999  , 20.459999  , 17.719999  , 14.48  , 11.44  , 8.08  , 3.62  , 0.0  , 0.0  , 0.0  , 0.0  , 3.62  , 5.1  , 5.1  , 3.62  , 3.62  , 3.62  , 0.0  , 3.62  , 3.62  , 0.0  , 0.0  , 0.0  , 3.62  , 5.1  , 5.1  , 6.26  , 12.0  , 13.04  , 20.779999  , 28.039999 );
                        kernels[60] = compute_kernel(x,   13.04  , 11.44  , 8.86  , 7.24  , 5.1  , 3.62  , 3.62  , 3.62  , 0.0  , 0.0  , 0.0  , 0.0  , 3.62  , 5.1  , 6.26  , 6.26  , 6.26  , 6.26  , 5.1  , 0.0  , 0.0  , 0.0  , 3.62  , 5.1  , 5.1  , 3.62  , 5.1  , 3.62  , 0.0  , 0.0  , 0.0  , 3.62  , 3.62  , 3.62  , 0.0  , 0.0  , 0.0  , 0.0  , 3.62  , 0.0  , 0.0  , 0.0  , 0.0  , 3.62  , 3.62  , 5.1  , 6.26  , 8.08  , 8.08  , 8.08  , 9.559999  , 9.559999  , 12.54  , 11.44  , 11.44  , 10.86  , 9.559999  , 8.86  , 8.08  , 8.08  , 7.24  , 7.24  , 7.24  , 7.24 );
                        kernels[61] = compute_kernel(x,   10.219999  , 10.219999  , 9.559999  , 9.559999  , 9.559999  , 9.559999  , 9.559999  , 9.559999  , 10.219999  , 9.559999  , 8.08  , 7.24  , 5.1  , 3.62  , 3.62  , 3.62  , 3.62  , 3.62  , 0.0  , 0.0  , 0.0  , 13.54  , 17.359999  , 15.339999  , 15.78  , 14.92  , 14.92  , 12.0  , 3.62  , 7.24  , 8.08  , 6.26  , 8.86  , 10.219999  , 12.0  , 10.219999  , 10.219999  , 10.219999  , 7.24  , 3.62  , 0.0  , 0.0  , 0.0  , 0.0  , 0.0  , 0.0  , 7.24  , 21.4  , 13.54  , 0.0  , 8.86  , 13.54  , 16.18  , 16.98  , 12.54  , 11.44  , 10.219999  , 10.219999  , 7.24  , 5.1  , 3.62  , 5.1  , 5.1  , 6.26 );
                        kernels[62] = compute_kernel(x,   13.54  , 15.78  , 16.98  , 16.58  , 15.78  , 14.48  , 14.02  , 13.54  , 11.44  , 9.559999  , 6.26  , 3.62  , 0.0  , 0.0  , 0.0  , 0.0  , 0.0  , 0.0  , 0.0  , 0.0  , 0.0  , 9.559999  , 20.139999  , 16.58  , 16.18  , 16.18  , 14.92  , 6.26  , 6.26  , 6.26  , 6.26  , 8.08  , 8.08  , 8.86  , 9.559999  , 8.86  , 9.559999  , 6.26  , 5.1  , 3.62  , 0.0  , 0.0  , 3.62  , 8.08  , 16.18  , 23.18  , 6.26  , 8.08  , 14.02  , 12.54  , 14.48  , 16.18  , 15.78  , 10.86  , 10.86  , 10.86  , 10.219999  , 7.24  , 7.24  , 5.1  , 6.26  , 5.1  , 7.24  , 7.24 );
                        kernels[63] = compute_kernel(x,   13.54  , 11.44  , 10.86  , 11.44  , 13.54  , 13.54  , 14.48  , 14.02  , 13.54  , 12.54  , 12.0  , 10.86  , 10.219999  , 9.559999  , 8.86  , 8.08  , 8.08  , 7.24  , 6.26  , 7.24  , 6.26  , 6.26  , 5.1  , 5.1  , 3.62  , 0.0  , 0.0  , 0.0  , 0.0  , 0.0  , 0.0  , 0.0  , 0.0  , 0.0  , 0.0  , 0.0  , 0.0  , 0.0  , 0.0  , 0.0  , 0.0  , 0.0  , 0.0  , 0.0  , 0.0  , 0.0  , 0.0  , 0.0  , 0.0  , 0.0  , 0.0  , 0.0  , 0.0  , 0.0  , 0.0  , 0.0  , 0.0  , 0.0  , 0.0  , 0.0  , 0.0  , 0.0  , 0.0  , 0.0 );
                        kernels[64] = compute_kernel(x,   10.86  , 10.219999  , 9.559999  , 9.559999  , 8.86  , 8.86  , 8.86  , 8.86  , 8.08  , 8.86  , 8.08  , 8.08  , 8.08  , 7.24  , 8.08  , 8.08  , 7.24  , 8.08  , 8.08  , 8.08  , 8.86  , 8.86  , 8.08  , 8.86  , 8.86  , 8.08  , 8.08  , 8.08  , 7.24  , 7.24  , 8.08  , 7.24  , 7.24  , 7.24  , 8.08  , 7.24  , 7.24  , 7.24  , 8.08  , 7.24  , 7.24  , 7.24  , 7.24  , 7.24  , 7.24  , 8.08  , 6.26  , 5.1  , 5.1  , 3.62  , 3.62  , 0.0  , 0.0  , 0.0  , 3.62  , 0.0  , 0.0  , 0.0  , 0.0  , 0.0  , 0.0  , 0.0  , 0.0  , 0.0 );
                        kernels[65] = compute_kernel(x,   11.44  , 11.44  , 10.86  , 10.219999  , 8.86  , 8.86  , 8.08  , 7.24  , 6.26  , 7.24  , 7.24  , 6.26  , 6.26  , 3.62  , 3.62  , 3.62  , 0.0  , 0.0  , 0.0  , 0.0  , 0.0  , 0.0  , 0.0  , 0.0  , 0.0  , 3.62  , 3.62  , 3.62  , 3.62  , 3.62  , 0.0  , 0.0  , 0.0  , 0.0  , 3.62  , 0.0  , 0.0  , 0.0  , 0.0  , 0.0  , 0.0  , 0.0  , 0.0  , 3.62  , 3.62  , 5.1  , 5.1  , 6.26  , 6.26  , 7.24  , 7.24  , 7.24  , 7.24  , 7.24  , 7.24  , 6.26  , 6.26  , 6.26  , 5.1  , 5.1  , 5.1  , 5.1  , 5.1  , 5.1 );
                        kernels[66] = compute_kernel(x,   10.219999  , 10.86  , 10.219999  , 8.86  , 7.24  , 7.24  , 6.26  , 5.1  , 5.1  , 5.1  , 5.1  , 3.62  , 0.0  , 0.0  , 0.0  , 0.0  , 0.0  , 0.0  , 0.0  , 0.0  , 0.0  , 0.0  , 0.0  , 0.0  , 0.0  , 0.0  , 0.0  , 0.0  , 0.0  , 0.0  , 0.0  , 0.0  , 0.0  , 0.0  , 0.0  , 0.0  , 0.0  , 0.0  , 0.0  , 0.0  , 0.0  , 0.0  , 0.0  , 0.0  , 0.0  , 0.0  , 0.0  , 0.0  , 0.0  , 0.0  , 0.0  , 0.0  , 0.0  , 0.0  , 0.0  , 0.0  , 0.0  , 0.0  , 0.0  , 0.0  , 0.0  , 0.0  , 0.0  , 0.0 );
                        kernels[67] = compute_kernel(x,   10.219999  , 10.86  , 12.0  , 11.44  , 10.86  , 11.44  , 10.219999  , 9.559999  , 9.559999  , 8.86  , 8.86  , 8.08  , 8.86  , 8.08  , 8.86  , 8.08  , 8.86  , 8.86  , 8.08  , 9.559999  , 8.86  , 9.559999  , 8.86  , 8.86  , 9.559999  , 8.86  , 8.86  , 9.559999  , 8.86  , 8.86  , 8.86  , 8.08  , 8.08  , 8.86  , 8.08  , 8.08  , 8.08  , 7.24  , 6.26  , 7.24  , 8.08  , 6.26  , 6.26  , 6.26  , 3.62  , 0.0  , 0.0  , 0.0  , 0.0  , 0.0  , 0.0  , 0.0  , 0.0  , 0.0  , 0.0  , 0.0  , 0.0  , 0.0  , 0.0  , 0.0  , 0.0  , 0.0  , 0.0  , 0.0 );
                        kernels[68] = compute_kernel(x,   13.04  , 14.02  , 12.54  , 12.0  , 13.04  , 11.44  , 12.54  , 11.44  , 10.86  , 11.44  , 11.44  , 10.86  , 10.86  , 11.44  , 11.44  , 11.44  , 11.44  , 11.44  , 10.86  , 10.219999  , 10.219999  , 9.559999  , 9.559999  , 10.86  , 11.44  , 11.44  , 11.44  , 10.219999  , 7.24  , 5.1  , 3.62  , 3.62  , 3.62  , 3.62  , 3.62  , 3.62  , 3.62  , 3.62  , 3.62  , 0.0  , 0.0  , 0.0  , 0.0  , 0.0  , 0.0  , 0.0  , 3.62  , 3.62  , 0.0  , 0.0  , 0.0  , 0.0  , 0.0  , 0.0  , 0.0  , 5.1  , 8.08  , 8.86  , 8.86  , 8.08  , 8.08  , 8.08  , 8.08  , 8.08 );
                        kernels[69] = compute_kernel(x,   13.04  , 11.44  , 8.86  , 8.08  , 8.86  , 9.559999  , 9.559999  , 10.219999  , 11.44  , 11.44  , 11.44  , 12.54  , 12.0  , 11.44  , 11.44  , 10.86  , 9.559999  , 8.86  , 8.86  , 10.219999  , 10.86  , 12.0  , 11.44  , 10.86  , 10.219999  , 8.86  , 7.24  , 5.1  , 5.1  , 6.26  , 5.1  , 3.62  , 3.62  , 6.26  , 8.86  , 9.559999  , 9.559999  , 8.86  , 7.24  , 5.1  , 3.62  , 3.62  , 0.0  , 3.62  , 3.62  , 5.1  , 5.1  , 5.1  , 3.62  , 5.1  , 7.24  , 8.86  , 7.24  , 5.1  , 5.1  , 5.1  , 6.26  , 6.26  , 6.26  , 6.26  , 6.26  , 6.26  , 5.1  , 3.62 );
                        kernels[70] = compute_kernel(x,   11.44  , 12.54  , 13.04  , 13.04  , 13.04  , 14.48  , 14.48  , 15.78  , 13.54  , 13.54  , 16.18  , 19.139999  , 20.139999  , 19.48  , 19.48  , 18.1  , 18.459999  , 18.459999  , 16.98  , 16.18  , 16.18  , 14.02  , 13.04  , 13.54  , 13.54  , 12.54  , 12.0  , 14.02  , 15.339999  , 14.92  , 15.339999  , 14.48  , 13.04  , 12.54  , 12.0  , 8.08  , 5.1  , 3.62  , 6.26  , 3.62  , 0.0  , 0.0  , 0.0  , 0.0  , 0.0  , 0.0  , 6.26  , 6.26  , 5.1  , 11.44  , 5.1  , 8.86  , 12.0  , 6.26  , 7.24  , 3.62  , 0.0  , 0.0  , 0.0  , 0.0  , 0.0  , 3.62  , 5.1  , 5.1 );
                        kernels[71] = compute_kernel(x,   14.48  , 13.54  , 14.02  , 14.02  , 14.02  , 13.54  , 14.02  , 14.02  , 13.04  , 14.02  , 13.04  , 14.02  , 12.54  , 13.04  , 11.44  , 11.44  , 10.219999  , 10.219999  , 8.86  , 9.559999  , 8.86  , 9.559999  , 8.08  , 8.86  , 8.86  , 8.08  , 8.86  , 8.86  , 8.86  , 8.86  , 8.86  , 8.08  , 8.08  , 8.08  , 7.24  , 7.24  , 7.24  , 7.24  , 7.24  , 8.08  , 7.24  , 7.24  , 7.24  , 7.24  , 5.1  , 3.62  , 3.62  , 3.62  , 0.0  , 0.0  , 0.0  , 3.62  , 5.1  , 8.86  , 10.86  , 10.219999  , 10.219999  , 10.219999  , 9.559999  , 8.08  , 6.26  , 6.26  , 5.1  , 3.62 );
                        kernels[72] = compute_kernel(x,   10.86  , 11.44  , 12.0  , 12.54  , 12.54  , 12.54  , 12.54  , 12.0  , 11.44  , 10.86  , 10.219999  , 9.559999  , 8.86  , 8.86  , 8.08  , 8.08  , 8.08  , 7.24  , 7.24  , 8.86  , 12.0  , 11.44  , 12.54  , 11.44  , 10.219999  , 10.86  , 9.559999  , 10.219999  , 9.559999  , 8.86  , 9.559999  , 8.86  , 9.559999  , 8.86  , 8.86  , 8.86  , 8.86  , 9.559999  , 8.86  , 8.86  , 10.219999  , 13.04  , 16.98  , 17.719999  , 16.18  , 17.359999  , 17.359999  , 17.359999  , 17.719999  , 15.78  , 15.339999  , 14.48  , 14.92  , 14.48  , 13.04  , 13.54  , 9.559999  , 8.86  , 9.559999  , 11.44  , 12.54  , 11.44  , 13.04  , 12.54 );
                        kernels[73] = compute_kernel(x,   12.54  , 16.18  , 15.339999  , 15.78  , 19.139999  , 18.459999  , 16.18  , 14.48  , 13.04  , 10.86  , 12.54  , 13.54  , 9.559999  , 5.1  , 0.0  , 0.0  , 0.0  , 0.0  , 0.0  , 0.0  , 0.0  , 3.62  , 5.1  , 6.26  , 6.26  , 7.24  , 8.08  , 8.86  , 9.559999  , 10.219999  , 10.219999  , 9.559999  , 8.86  , 8.86  , 8.08  , 8.08  , 7.24  , 7.24  , 7.24  , 7.24  , 7.24  , 7.24  , 7.24  , 7.24  , 9.559999  , 13.04  , 13.54  , 13.04  , 10.86  , 10.86  , 10.86  , 12.0  , 10.219999  , 9.559999  , 8.86  , 8.86  , 9.559999  , 8.86  , 9.559999  , 8.86  , 8.86  , 8.08  , 7.24  , 7.24 );
                        kernels[74] = compute_kernel(x,   9.559999  , 9.559999  , 8.86  , 8.08  , 8.08  , 7.24  , 6.26  , 6.26  , 6.26  , 6.26  , 6.26  , 6.26  , 6.26  , 5.1  , 3.62  , 3.62  , 3.62  , 3.62  , 3.62  , 0.0  , 0.0  , 0.0  , 0.0  , 0.0  , 0.0  , 0.0  , 0.0  , 0.0  , 0.0  , 0.0  , 0.0  , 0.0  , 0.0  , 0.0  , 0.0  , 0.0  , 0.0  , 0.0  , 0.0  , 0.0  , 0.0  , 0.0  , 0.0  , 0.0  , 0.0  , 0.0  , 0.0  , 0.0  , 0.0  , 0.0  , 0.0  , 0.0  , 0.0  , 0.0  , 0.0  , 0.0  , 0.0  , 0.0  , 0.0  , 0.0  , 0.0  , 0.0  , 0.0  , 0.0 );
                        kernels[75] = compute_kernel(x,   10.219999  , 10.86  , 11.44  , 10.86  , 10.86  , 10.219999  , 9.559999  , 9.559999  , 8.86  , 8.86  , 8.86  , 8.08  , 8.08  , 8.86  , 8.08  , 8.86  , 8.08  , 8.08  , 8.86  , 8.86  , 8.08  , 8.08  , 8.08  , 7.24  , 7.24  , 7.24  , 7.24  , 7.24  , 7.24  , 8.08  , 7.24  , 6.26  , 6.26  , 7.24  , 6.26  , 6.26  , 6.26  , 6.26  , 7.24  , 6.26  , 6.26  , 6.26  , 6.26  , 7.24  , 7.24  , 6.26  , 6.26  , 5.1  , 5.1  , 3.62  , 0.0  , 0.0  , 0.0  , 0.0  , 0.0  , 0.0  , 0.0  , 0.0  , 0.0  , 0.0  , 0.0  , 0.0  , 0.0  , 0.0 );
                        kernels[76] = compute_kernel(x,   12.0  , 10.86  , 11.44  , 13.54  , 14.02  , 15.78  , 14.48  , 16.98  , 14.02  , 14.02  , 15.339999  , 13.04  , 17.359999  , 14.02  , 14.02  , 16.58  , 16.98  , 16.58  , 18.1  , 16.98  , 16.98  , 8.86  , 11.44  , 5.1  , 10.219999  , 13.54  , 5.1  , 9.559999  , 8.08  , 5.1  , 0.0  , 0.0  , 5.1  , 5.1  , 7.24  , 8.08  , 8.86  , 9.559999  , 9.559999  , 8.08  , 6.26  , 5.1  , 3.62  , 3.62  , 0.0  , 0.0  , 0.0  , 0.0  , 0.0  , 0.0  , 3.62  , 3.62  , 5.1  , 6.26  , 6.26  , 6.26  , 5.1  , 5.1  , 3.62  , 3.62  , 3.62  , 3.62  , 3.62  , 5.1 );
                        kernels[77] = compute_kernel(x,   10.86  , 10.219999  , 10.219999  , 9.559999  , 8.86  , 8.86  , 9.559999  , 8.86  , 8.86  , 8.86  , 8.08  , 8.08  , 8.86  , 8.08  , 8.08  , 8.08  , 7.24  , 7.24  , 7.24  , 7.24  , 7.24  , 7.24  , 7.24  , 7.24  , 7.24  , 8.08  , 8.08  , 7.24  , 7.24  , 8.08  , 7.24  , 7.24  , 8.08  , 7.24  , 6.26  , 6.26  , 7.24  , 7.24  , 6.26  , 6.26  , 7.24  , 8.08  , 7.24  , 6.26  , 6.26  , 6.26  , 6.26  , 5.1  , 5.1  , 3.62  , 0.0  , 0.0  , 0.0  , 0.0  , 0.0  , 0.0  , 0.0  , 0.0  , 0.0  , 0.0  , 0.0  , 0.0  , 0.0  , 0.0 );
                        kernels[78] = compute_kernel(x,   13.04  , 12.0  , 10.86  , 10.86  , 10.86  , 10.86  , 10.86  , 11.44  , 11.44  , 10.86  , 11.44  , 10.86  , 10.219999  , 10.86  , 10.219999  , 10.219999  , 10.219999  , 12.0  , 12.54  , 10.86  , 8.86  , 6.26  , 0.0  , 5.1  , 8.08  , 9.559999  , 8.86  , 8.08  , 7.24  , 8.08  , 9.559999  , 9.559999  , 10.219999  , 8.08  , 6.26  , 5.1  , 3.62  , 3.62  , 0.0  , 0.0  , 0.0  , 0.0  , 0.0  , 0.0  , 0.0  , 0.0  , 0.0  , 0.0  , 0.0  , 0.0  , 3.62  , 3.62  , 3.62  , 3.62  , 3.62  , 3.62  , 3.62  , 3.62  , 5.1  , 5.1  , 5.1  , 5.1  , 5.1  , 5.1 );
                        kernels[79] = compute_kernel(x,   12.54  , 13.54  , 11.44  , 10.86  , 12.0  , 10.86  , 10.86  , 10.86  , 12.0  , 11.44  , 10.86  , 11.44  , 11.44  , 10.86  , 9.559999  , 9.559999  , 9.559999  , 9.559999  , 7.24  , 6.26  , 5.1  , 3.62  , 3.62  , 0.0  , 0.0  , 0.0  , 0.0  , 0.0  , 0.0  , 3.62  , 5.1  , 8.86  , 0.0  , 0.0  , 8.86  , 12.0  , 14.02  , 15.78  , 16.18  , 16.98  , 16.98  , 15.339999  , 13.54  , 12.0  , 11.44  , 10.219999  , 8.86  , 7.24  , 5.1  , 0.0  , 0.0  , 0.0  , 0.0  , 0.0  , 3.62  , 6.26  , 7.24  , 8.08  , 8.08  , 8.08  , 8.08  , 8.08  , 7.24  , 7.24 );
                        decisions[0] = 0.153445419692
                        + kernels[0] * 0.000365023314
                        + kernels[1] * 4.1014452e-05
                        + kernels[2] * 0.000515929872
                        + kernels[3] * 3.747936e-06
                        + kernels[5] * 0.000379121678
                        + kernels[6] * 0.000138064216
                        + kernels[9] * 1.263348e-06
                        + kernels[10] * 5.088466e-06
                        + kernels[11] * 3.926219e-05
                        + kernels[14] * 0.000568714124
                        + kernels[15] * 3.3031748e-05
                        + kernels[16] * 3.212017e-06
                        + kernels[18] * 0.000291902016
                        + kernels[19] * -0.000127602359
                        + kernels[21] * -6.8223231e-05
                        + kernels[23] * -0.000128664974
                        + kernels[24] * -4.9039203e-05
                        + kernels[25] * -1.4482056e-05
                        + kernels[26] * -7.898524e-05
                        + kernels[31] * -0.000282521668
                        + kernels[32] * -0.000217238639
                        + kernels[33] * -1.7134775e-05
                        + kernels[34] * -0.001212150927
                        + kernels[35] * -3.3655903e-05
                        + kernels[37] * -0.000155676401
                        ;
                        decisions[1] = 0.778659999699
                        + kernels[0] * 0.000289387187
                        + kernels[1] * 4.108588e-06
                        + kernels[2] * 0.000108393837
                        + kernels[3] * 1.168826e-06
                        + kernels[4] * 7.061901e-06
                        + kernels[5] * 4.05463e-06
                        + kernels[6] * 0.000236554981
                        + kernels[8] * 1.9353752e-05
                        + kernels[9] * 4.90069e-06
                        + kernels[10] * 4.8309745e-05
                        + kernels[11] * 3.0542896e-05
                        + kernels[12] * 2.5388536e-05
                        + kernels[13] * 3.560845e-06
                        + kernels[14] * 0.000248551528
                        + kernels[15] * 1.4870042e-05
                        + kernels[16] * 1.8485425e-05
                        + kernels[17] * 5.107579e-06
                        + kernels[39] * -0.000252811034
                        + kernels[40] * -0.000105256454
                        + kernels[41] * -1.568716e-05
                        + kernels[42] * -7.30287e-07
                        + kernels[43] * -4.422794e-06
                        + kernels[44] * -2.4808896e-05
                        + kernels[45] * -3.5243817e-05
                        + kernels[47] * -3.75648e-07
                        + kernels[52] * -1.632678e-05
                        + kernels[53] * -2.029776e-05
                        + kernels[54] * -4.5610988e-05
                        + kernels[56] * -0.000379873679
                        + kernels[57] * -1.4825591e-05
                        + kernels[58] * -4.80703e-07
                        + kernels[60] * -0.000104431061
                        + kernels[61] * -2.1385907e-05
                        + kernels[62] * -2.7232429e-05
                        ;
                        decisions[2] = -0.687536505435
                        + kernels[0] * 0.000494505168
                        + kernels[1] * 7.6953187e-05
                        + kernels[2] * 0.001143682078
                        + kernels[3] * 4.20146e-06
                        + kernels[4] * 7.405358e-06
                        + kernels[5] * 0.000856912419
                        + kernels[6] * 0.000370400138
                        + kernels[7] * 1.4490966e-05
                        + kernels[9] * 4.85741e-06
                        + kernels[10] * 0.000103096642
                        + kernels[11] * 3.4609493e-05
                        + kernels[14] * 0.002101870866
                        + kernels[15] * 1.6664198e-05
                        + kernels[17] * 1.691751e-05
                        + kernels[18] * 0.00013989419
                        + kernels[63] * -0.00050757954
                        + kernels[64] * -1.885898e-06
                        + kernels[65] * -0.000144764073
                        + kernels[66] * -0.002171011093
                        + kernels[67] * -0.000466004618
                        + kernels[68] * -0.000136385101
                        + kernels[69] * -0.000194281486
                        + kernels[70] * -8.6265407e-05
                        + kernels[73] * -3.1748596e-05
                        + kernels[74] * -0.000670225193
                        + kernels[75] * -0.00045416811
                        + kernels[76] * -2.7655499e-05
                        + kernels[77] * -0.000490656756
                        + kernels[79] * -3.829715e-06
                        ;
                        decisions[3] = 0.77098239976
                        + kernels[19] * 0.000111091655
                        + kernels[20] * 4.6453243e-05
                        + kernels[22] * 0.000154147726
                        + kernels[23] * 2.305241e-06
                        + kernels[25] * 6.752142e-06
                        + kernels[26] * 6.846978e-05
                        + kernels[27] * 7.5554009e-05
                        + kernels[29] * 0.000138843749
                        + kernels[30] * 0.00015459874
                        + kernels[31] * 0.000555128946
                        + kernels[32] * 0.000168163155
                        + kernels[33] * 1.2540158e-05
                        + kernels[34] * 0.000429551811
                        + kernels[39] * -0.000372598094
                        + kernels[40] * -6.7821047e-05
                        + kernels[41] * -0.0002197592
                        + kernels[43] * -2.57964e-05
                        + kernels[45] * -2.9519091e-05
                        + kernels[46] * -5.0050563e-05
                        + kernels[47] * -1.119041e-06
                        + kernels[48] * -1.385345e-06
                        + kernels[49] * -0.000235762049
                        + kernels[50] * -1.0266715e-05
                        + kernels[51] * -2.1284112e-05
                        + kernels[52] * -1.6807211e-05
                        + kernels[53] * -3.40348e-05
                        + kernels[54] * -3.0488614e-05
                        + kernels[56] * -0.000741705007
                        + kernels[57] * -1.1936006e-05
                        + kernels[61] * -1.3345536e-05
                        + kernels[62] * -3.9921521e-05
                        ;
                        decisions[4] = -1.310178438886
                        + kernels[19] * 0.000268098411
                        + kernels[20] * 1.3799446e-05
                        + kernels[21] * 3.9024898e-05
                        + kernels[23] * 7.088715e-05
                        + kernels[24] * 0.000714591139
                        + kernels[25] * 2.4005764e-05
                        + kernels[28] * 0.000335560095
                        + kernels[30] * 0.000118634446
                        + kernels[31] * 0.000718169205
                        + kernels[32] * 5.8313865e-05
                        + kernels[34] * 0.003111680675
                        + kernels[35] * 7.5552914e-05
                        + kernels[36] * 1.0440047e-05
                        + kernels[37] * 0.001122644963
                        + kernels[38] * 0.000257473749
                        + kernels[63] * -0.00193164304
                        + kernels[65] * -0.000163565368
                        + kernels[66] * -0.001743052076
                        + kernels[67] * -0.000293656565
                        + kernels[68] * -9.1132291e-05
                        + kernels[70] * -0.000101005227
                        + kernels[71] * -2.6498673e-05
                        + kernels[72] * -4.2318655e-05
                        + kernels[73] * -0.000170251932
                        + kernels[74] * -0.002162749405
                        + kernels[75] * -0.00012013825
                        + kernels[78] * -9.2865285e-05
                        ;
                        decisions[5] = -0.843611413653
                        + kernels[39] * 0.00023251165
                        + kernels[40] * 0.000115399744
                        + kernels[41] * 6.8363967e-05
                        + kernels[42] * 2.68835e-07
                        + kernels[44] * 1.0243227e-05
                        + kernels[45] * 1.0121244e-05
                        + kernels[46] * 1.1849856e-05
                        + kernels[47] * 1.73099e-07
                        + kernels[49] * 0.000154980142
                        + kernels[51] * 3.4404818e-05
                        + kernels[52] * 2.7300616e-05
                        + kernels[53] * 5.7213362e-05
                        + kernels[54] * 2.5046636e-05
                        + kernels[55] * 6.127634e-06
                        + kernels[56] * 0.000491882795
                        + kernels[57] * 1.3675552e-05
                        + kernels[58] * 1.73185e-07
                        + kernels[59] * 1.3705983e-05
                        + kernels[60] * 4.1657852e-05
                        + kernels[61] * 4.2763049e-05
                        + kernels[62] * 1.2994832e-05
                        + kernels[63] * -0.00050660291
                        + kernels[65] * -0.000300407729
                        + kernels[68] * -0.000211145517
                        + kernels[70] * -5.5817714e-05
                        + kernels[71] * -4.7219363e-05
                        + kernels[72] * -2.5484907e-05
                        + kernels[73] * -4.088998e-06
                        + kernels[74] * -0.000115559771
                        + kernels[75] * -2.0415924e-05
                        + kernels[77] * -6.3601768e-05
                        + kernels[78] * -2.0513479e-05
                        ;
                        votes[decisions[0] > 0 ? 0 : 1] += 1;
                        votes[decisions[1] > 0 ? 0 : 2] += 1;
                        votes[decisions[2] > 0 ? 0 : 3] += 1;
                        votes[decisions[3] > 0 ? 1 : 2] += 1;
                        votes[decisions[4] > 0 ? 1 : 3] += 1;
                        votes[decisions[5] > 0 ? 2 : 3] += 1;
                        int val = votes[0];
                        int idx = 0;

                        for (int i = 1; i < 4; i++) {
                            if (votes[i] > val) {
                                val = votes[i];
                                idx = i;
                            }
                        }

                        return idx;
                    }

                    /**
                    * Predict readable class name
                    */
                    const char* predictLabel(float *x) {
                        return idxToLabel(predict(x));
                    }

                    /**
                    * Convert class idx to readable name
                    */
                    const char* idxToLabel(uint8_t classIdx) {
                        switch (classIdx) {
                            case 0:
                            return "ayuda";
                            case 1:
                            return "no";
                            case 2:
                            return "peligro";
                            case 3:
                            return "si";
                            default:
                            return "Houston we have a problem";
                        }
                    }

                protected:
                    /**
                    * Compute kernel between feature vector and support vector.
                    * Kernel type: poly
                    */
                    float compute_kernel(float *x, ...) {
                        va_list w;
                        va_start(w, 64);
                        float kernel = 0.0;

                        for (uint16_t i = 0; i < 64; i++) {
                            kernel += x[i] * va_arg(w, double);
                        }

                        return pow((0.1 * kernel) + 0.0, 2);
                    }
                };
            }
        }
    }